10 100
topic_0 0.1248764 -0.14473023 -0.07853106 -0.12600572 0.04219809 0.11997331 0.25096083 0.00387359 0.15936233 -0.24866378 0.09956813 0.42629844 0.06623938 0.1301428 -0.15025176 -0.12423674 0.19048539 -0.122230604 -0.019223906 -0.19365296 0.21399973 0.008692826 -0.19339405 -0.09804555 0.11119279 -0.24608819 -0.10132223 -0.4118387 0.06580498 0.055209707 0.016379753 -0.14467865 -0.22872491 0.26224312 0.08414025 -0.15908584 0.18449612 0.24837622 -0.18236771 -0.18628912 0.44172606 -0.11731378 0.20214349 -0.039151188 -0.088215925 -0.28071544 0.17120183 0.17941292 -0.11704293 0.088055864 -0.047408435 0.07338703 -0.23379871 0.12690203 -0.15826812 -0.13586624 -0.25908706 0.036629565 0.11412514 0.23835017 0.014327032 -0.08488404 0.10651569 0.007256044 0.20871724 0.00827277 -0.18382671 -0.26590684 -0.0061967904 0.053393703 0.19123699 -0.15241367 -0.07046665 0.020555733 0.39174902 -0.026731074 0.2567109 0.002187167 0.034771573 0.034310326 0.16882592 0.0657323 -0.08480439 -0.013393678 0.036481217 0.25699365 -0.07286932 -0.12284922 -0.13995123 -0.06559646 -0.13894261 -0.19794689 0.14714839 0.074640036 0.088680625 0.06643125 0.01895266 -0.108969174 0.01344337 0.02100727
topic_1 0.05385702 0.28450218 -0.8584724 0.30752742 0.15827793 0.10924402 -0.6068242 0.7067878 0.2966541 -0.51500624 0.37123275 -0.19636379 -0.5269827 0.3462783 0.4500656 0.43520182 -0.21285236 -0.032401264 0.045524042 -0.2904304 0.5896034 -0.33334616 -0.14357722 -0.7106263 -0.14277223 -0.5449184 -0.11752013 0.22648542 0.31059387 0.4517523 -0.5334221 -0.26834676 0.5020284 -0.45062932 0.613541 0.32742232 0.34995532 -0.1500702 0.31594205 -0.40592405 0.4386647 -0.097995065 -0.5526126 -0.1427521 0.15796489 0.2758998 -0.024243627 -0.55695504 -0.24555504 -0.80426115 0.23332877 -0.24702434 0.09735064 0.511489 0.0069804564 -0.38113704 -0.41965437 0.25889704 -0.09667363 0.14099237 0.42058846 -0.31341454 0.059443377 -0.10857218 0.12651104 0.026869414 0.26042297 0.06099643 -0.16288891 -0.49797392 0.0046599247 0.55078495 -0.7214141 -0.74705863 0.15148574 0.426262 0.4650611 -0.45270026 -0.03014844 -0.37349105 -0.08354893 0.065081015 -0.27983308 0.24670187 0.29074097 0.32420114 0.4689484 0.4270436 -0.5644392 -0.19954379 0.09711227 0.8229155 -0.63592637 0.1643977 0.44746116 -0.38217425 -0.60755336 0.37056074 -0.58507663 0.13787836
topic_2 -0.3340179 0.1830598 0.22517729 0.5868623 1.1140887 0.011556154 -0.3207249 -1.1255176 0.35626486 1.060677 0.5719951 -0.24088356 0.025618618 0.17089471 -0.72499275 -0.31235477 0.6324938 -0.0573706 0.08811925 0.024043936 -0.09541049 -0.2067309 0.26142108 0.46060824 -0.05339254 0.44200853 0.1714782 -0.3649255 0.49089438 0.110207684 -0.39893255 -0.19140714 0.21191083 -0.5316489 0.25282454 0.78890234 0.34613496 -0.42956907 0.4891643 1.0822238 0.04125486 -0.03375459 0.21576056 -0.45483336 0.064403735 0.0903444 -0.11350553 0.19730738 -0.36784193 0.2744796 -0.26780906 0.57199275 -0.5588319 -0.25426605 -0.28493583 0.7856916 0.20653865 0.37930503 -0.4536646 0.3796066 -0.1329642 -0.52533007 -0.8376987 0.16573963 0.6196415 -0.125436 0.8257265 -1.0403402 -0.019796006 0.51296633 0.28557044 0.14403412 -0.23172948 0.16238631 0.3653055 0.24190202 -0.18710203 -0.68224245 0.043139633 -0.6378898 0.668822 0.6320089 1.0710177 0.37796682 0.75374466 0.5831697 -0.7618935 1.0270625 0.20277414 0.51998925 0.31109807 -0.04306363 0.6736316 0.7144676 0.4077302 0.13955286 -0.11390693 0.32249242 -0.91071904 1.2136637
topic_3 -0.08817797 0.24949746 0.24092928 0.291981 -1.4098003 -1.1057167 0.9667949 -0.88610977 -0.45893267 0.27830958 0.071768485 0.3121457 -0.36239064 0.49796358 0.094376855 0.6302741 0.4815829 0.1519055 -0.29354754 -0.0774478 -0.33048216 -0.088035144 0.08196596 -1.2296517 -0.71304095 0.05227872 0.3116635 -0.65250784 -0.47545618 -0.124160044 -0.54864085 0.24113436 0.37859398 -0.0378022 0.05365137 -0.08994575 0.15807092 -1.116141 -0.9698774 -0.11370598 0.5794152 -0.65733325 0.09757107 1.0756162 -0.41840297 -0.03723645 -1.1955326 -0.20236766 -0.5043616 0.78267014 -0.5584044 0.054084413 0.69962233 0.32797906 -1.1592308 -0.25511482 0.012612506 -0.20426457 0.18023981 -0.555 -0.26594487 -1.4901695 0.28466064 -0.9581694 -0.13925238 -0.38918462 0.9168026 -0.22771238 0.4094147 0.34061772 0.62601507 -0.5081369 -0.30135828 -0.15366617 -0.6554668 -0.6475718 0.113140285 -0.18229806 -0.26316243 -0.4716398 -0.09660564 0.2987643 -0.28801367 -0.6417958 0.021194832 0.07444403 0.90189195 0.06680079 0.22733234 -0.21810138 0.53564745 0.44257128 -0.014259261 0.4018468 -0.4450651 0.35287923 0.07447479 0.20013122 0.2930486 0.34520692
topic_4 0.051850535 -0.13338518 -0.09595561 -0.42405438 -0.30331168 0.4552083 -0.40962154 0.0044246064 0.5444053 0.24713284 -0.12783039 0.2886231 -0.14481771 -0.00046099536 -0.64584744 0.10505909 0.11564015 -0.23295154 -0.515861 0.4974183 -0.47200269 0.2819716 0.565234 -0.6213369 -0.3319618 -0.4459984 -0.014527764 0.5544655 0.18096234 -0.2517812 0.22698352 -0.5336845 0.5972033 -0.74025047 0.2720504 0.22962067 0.036923148 -0.23761635 0.26796356 -0.07289947 0.0025579378 -0.6261087 -0.33874077 0.26690966 -0.67173165 -0.16717452 0.82267356 1.0000958 0.05102234 0.17058505 0.76792765 0.37261155 0.87653154 -0.37222958 0.27473354 -0.15910104 -0.69576323 0.6337119 0.15750237 0.32036433 0.06537324 0.025604673 -0.5205699 -0.2739076 -0.094238244 -0.13841632 -0.62460756 -0.8745221 -0.32676578 -0.08603246 0.6437223 0.23519513 0.7262944 0.375033 -0.7578907 0.19008707 0.08672545 -0.36974895 0.0054331473 -0.19966576 0.70096606 -1.0740001 -0.7577972 0.3841249 0.76129997 -0.7099828 0.18567194 -0.04763459 0.25052556 0.14446248 -0.8954612 0.3138343 -0.16269074 0.21741764 -0.41085517 0.77880126 0.1259239 0.009552591 0.616211 0.43225297
topic_5 -0.24474351 0.3669726 -0.14749818 0.436107 0.50311434 -1.2849503 -0.17480184 0.06519607 0.15143062 -0.35555494 -0.18392038 -0.30145857 0.090731084 0.11827856 -0.009222991 -0.082744904 0.0443368 0.17882124 -0.260678 -0.95619607 -0.3431322 -0.2572724 -0.26370302 -0.48536435 0.08791807 -0.076861136 0.7361165 -0.28184405 -0.0124182645 0.6089516 -0.017158289 -0.86864465 0.21225625 0.6090993 0.17504139 -0.033634253 0.43439642 0.7167872 -0.5452295 -0.27164578 -0.40228668 0.676029 0.9259445 0.45701995 0.38182998 -0.17579658 0.19286887 0.9150963 0.09639112 0.06416769 0.63394666 -0.67921746 0.37984136 0.98363185 -0.3251886 1.4047532 -0.08400351 1.1785828 -0.12092939 0.7126822 -0.6923023 -0.19103599 0.33023497 0.21213447 -0.1636008 0.16131014 0.58543396 -0.22428577 -0.7916257 0.9204576 -0.9910961 0.4148497 0.71505445 -0.43516067 -0.43982348 0.44654968 -0.5587663 0.14306322 -0.14481418 0.21017328 -0.047633253 0.3839152 -0.2213209 0.21423985 0.5625288 -0.8083626 0.1628242 -0.22019725 -0.14160293 0.10083938 -0.0035853852 0.3662621 0.3066462 0.001125431 -0.2859706 -0.39225158 0.16795082 -0.120187074 0.18094674 -0.57749116
topic_6 0.03598429 0.47415483 0.076991715 0.63470775 -0.76753086 -0.6865224 -0.17175099 -0.15950821 -0.36588073 0.14419277 -0.7426263 -0.30084348 -0.033964366 -0.58158785 0.37081194 -1.1037127 -0.077850685 -0.25582942 -0.807038 -0.11203962 0.4078638 -0.32842714 0.37273908 -0.9186798 -0.5857125 0.46101648 -0.63969916 -0.45249715 -0.54199535 -0.24853645 0.98870254 0.18513358 -0.34175497 -0.40717122 0.037348498 -0.31802386 0.31087258 0.5778353 -0.2585646 -0.18837884 -0.37791574 -0.2287461 0.2422671 0.24252449 0.40895608 0.60368085 0.48625287 -0.4835158 -0.6193421 0.031276245 -0.16510218 -0.17026435 -0.32360098 -0.19392489 -0.4903961 -0.29423144 -0.19644849 -0.3226859 1.0121292 0.71299475 -0.56898934 0.7182101 -0.7845862 0.18440302 0.4226763 0.35594806 0.50881654 -0.4187964 -0.3483635 -0.4761199 0.2434004 0.32876456 -0.03445558 0.17368661 -0.31279042 0.5980306 0.15065429 0.87038046 0.7530911 0.8688587 -0.02241262 0.047933552 0.5954935 0.39705715 -0.37480363 0.68230474 -0.25849274 0.9008249 -0.15795141 0.07999435 -0.76342666 0.2943759 -0.44370157 0.2812456 -0.14366917 0.32619017 -0.69988066 0.5505287 0.36449543 0.17437698
topic_7 1.0340593 -0.32399297 -0.33795553 0.11048896 0.26003358 -0.5609814 0.7028644 0.10229401 -0.15145321 -0.16860065 0.20321067 -0.71133775 0.21534215 0.45492348 -0.41505674 0.18215826 0.41343433 -0.6406011 0.4469333 -0.51342964 -0.4636538 0.22139709 0.38524574 0.21413605 -0.47212532 -0.5069683 -0.43962327 0.05689251 -0.7540226 -0.019378383 0.2965454 -0.5311054 0.036676433 -0.032217454 0.09014201 0.3707575 0.06423819 0.6135831 0.90049887 0.15647928 -0.19512032 0.61371183 0.051355377 0.35915008 -0.31992468 -0.11715372 0.020219525 0.309755 0.054877955 -0.8742561 -0.37533423 0.6059954 0.09123516 0.24310866 -0.31772274 -0.11024467 0.30123383 -0.62420595 -0.4683866 -0.016436221 0.12574229 0.44173703 0.04839097 -0.65473324 -0.59172887 0.31148744 0.3017341 0.14415869 -0.26465648 0.7643672 0.7552606 0.2831655 -0.6846064 -0.28392562 -0.18931495 -0.8238673 -0.077835746 0.46870726 0.15596938 0.5386398 0.08260032 -0.28636315 -0.78474027 -0.23013198 -0.21263443 0.16926819 -0.91734576 -0.20570152 0.26588663 0.4995404 -0.20494421 0.5130039 0.0052769654 -0.10954791 -0.21194358 -0.38460195 -0.49671987 -0.12674755 -0.1280467 0.76001626
topic_8 -0.6919094 -0.07341626 -0.2855453 -0.57959205 -0.027904669 -0.6539539 -0.11618857 -0.46461338 -0.08398115 0.426303 0.24082287 0.5383512 -0.14712992 0.0379692 -0.11451783 0.15627296 -0.72567254 -0.5471578 0.4119605 0.10885794 -0.49874157 -0.14724672 0.40500447 -0.66157115 -0.26641202 -0.13989574 0.24865629 -0.24478163 0.20288947 0.076110676 0.44502202 0.036382597 0.021485949 0.598494 0.52203166 0.35037577 -0.21526933 0.52189153 -0.441647 -0.5308391 -0.11472751 -0.11469074 0.12300244 0.022104744 -0.15359476 0.24872057 -0.5697711 0.4161612 -0.092861645 0.07772113 0.2701011 0.0162377 -0.07769118 0.058826126 0.812386 -0.8911603 0.29162934 -0.05144531 0.21210031 -0.85084134 -0.09760339 -0.09507114 0.47153068 0.059074514 0.15615268 -0.4300176 0.2900918 0.9090302 -0.48272356 -0.045022342 0.23476574 -0.15773758 1.2945924 0.6125403 0.3502048 0.7398897 0.3743507 0.08594741 -0.2291849 0.071118936 -0.0405559 -0.21136807 0.328618 -0.09230893 0.07566119 0.10721902 -0.9946895 -0.0033384536 0.043898784 0.91918164 0.12039249 0.32429034 -0.80485296 0.714683 0.998465 -0.556809 -0.41751024 -1.056675 -0.5645005 0.5609505
topic_9 -0.28142995 -0.021115646 0.6075502 0.62022704 -0.5316367 1.00432 -0.088986285 0.58112043 -0.98447585 -0.6941589 -0.746568 0.06338558 -1.2241837 0.013914305 -0.1322186 -0.011892163 0.22244416 0.45806304 -0.40180194 0.56680596 0.52804184 0.3760179 0.09850945 0.9085173 1.4867147 -0.13653548 0.61467314 -0.014611028 -0.50778043 0.3776776 0.02190845 0.12329531 0.28272253 -0.506482 0.21951367 -0.6883656 -0.09616486 -0.36708722 -0.4381821 -0.26517764 0.38532022 -0.45239058 0.69236684 -0.14398201 -0.38625562 0.58281106 0.92165345 0.19919051 0.13960811 -0.7641497 -0.8127535 -0.70593244 0.24354576 -0.43693513 -0.042270333 1.1682197 -0.21279898 -0.5015718 0.9987796 -0.45053962 -0.20501956 -0.4195565 0.5751372 -0.0211442 -0.6906312 -0.16882826 1.1208386 0.59275544 -0.21117985 0.5681387 0.55909985 0.013983001 0.82183284 -0.40954366 -0.027696032 0.6098585 -0.12970075 -0.662717 0.92177373 -0.4094126 -0.57488745 -0.58826244 -1.0060588 -0.5051873 0.31704575 0.6091047 -1.5989399 0.3692595 -0.6399242 -0.34427142 -0.29146942 0.57937044 1.0222245 0.18048474 0.11261885 0.009743128 0.09039695 -0.5926132 -0.36460665 0.944102
