10 100
topic_0 0.059348416 -0.11227771 -0.046870384 -0.18418409 0.045437768 0.1524081 0.14212568 0.09731814 0.17269577 -0.1464523 0.034901034 0.29498214 0.10195949 0.106000245 -0.08566821 -0.041480277 0.10504357 -0.04067202 0.063805416 -0.08062509 0.20616364 0.031492196 -0.14458904 -0.027911965 0.07490315 -0.16421127 -0.104887255 -0.22035806 0.09505386 0.008330243 -0.07324763 -0.092007175 -0.18079844 0.20114578 -0.006060282 -0.14939259 0.11076972 0.2037134 -0.105574355 -0.099849984 0.29155442 -0.029761361 0.06573013 -0.078448676 0.014126451 -0.20811427 0.054529868 0.061482865 -0.0068008644 0.107881665 -0.027187457 0.020266514 -0.16351524 0.038120944 -0.036395285 -0.14096476 -0.0959448 -0.041505266 -0.018666308 0.13145241 0.054968465 -0.0025569308 0.04509215 -0.052666686 0.19078074 0.023298424 -0.22989473 -0.09914357 0.06967189 -0.0032664486 -0.01894516 -0.10628761 -0.07226969 0.04703753 0.3272109 -0.09048019 0.13824776 -0.017534874 -0.00022952826 0.045341197 0.02918912 0.10609969 0.043090522 -0.052559245 -0.048296414 0.14998044 0.068719916 -0.09785474 -0.08717367 -0.035604533 -0.07281387 -0.20649524 0.095688716 -0.01148746 0.06133904 -0.0063703125 0.036794163 -0.025597988 0.024558796 -0.09755823
topic_1 -0.015252338 0.01339056 -0.14146073 0.029933505 0.08551208 0.07960253 -0.093697004 0.14419836 0.051719684 -0.057429653 0.04252362 -0.09147079 -0.11238159 0.017496873 0.073197745 0.08417704 0.0027270538 -0.0073451297 0.031821936 -0.0022849278 0.09657076 -0.021314813 -0.040281422 -0.036259398 -0.04336078 -0.050570384 -0.03467611 0.08228511 0.039693113 0.056430068 -0.07438267 -0.038287725 0.030726671 -0.15072119 0.02351165 0.021683697 -0.013160529 -0.030640665 0.025378115 -0.095012315 0.04252706 -0.014823198 -0.15312968 -0.056235664 0.07396425 -0.00297308 0.021742461 -0.110683575 -0.0012794978 -0.0768593 0.044686243 -0.08703633 -0.0626651 0.09578711 0.11399089 -0.069902055 -0.008659802 0.04344956 -0.07847851 -0.031267308 0.07152141 -0.0035720032 0.032564383 -0.036685452 0.025604155 0.0011822695 -0.058653172 0.058856178 0.031368814 -0.06683862 -0.070694596 0.09867761 -0.06730259 -0.066335514 0.086226456 0.080755234 0.053430717 -0.085941784 0.001154407 -0.016402954 -0.0127681885 0.00030090587 -0.0015443836 0.047864147 0.048819784 0.00058795465 0.13635248 0.06880633 -0.119009025 -0.008162922 -0.050972328 0.073672175 -0.082641765 0.026284082 0.07947102 -0.09009175 -0.097990155 0.0633288 -0.05541542 -0.051309094
topic_2 -0.0053500817 -0.017656611 6.09069e-05 0.0007881341 0.06996799 0.022230987 -0.024634752 -0.061458092 0.03345537 0.13205753 0.08147084 -0.029142654 0.021370858 0.014676419 -0.07017026 -0.021581851 0.0951144 0.054880887 0.00015738397 0.03848577 0.022681633 -0.018361323 0.002703238 0.07909764 -0.038108833 0.058195572 -0.0040939953 0.0007908394 0.043014474 0.034252267 -0.067596704 0.016843984 0.07431884 -0.14919952 -0.027693624 0.060663946 0.047519073 -0.08125846 0.041597754 0.07681905 -0.0006694409 -0.0022604815 -0.023781806 -0.04513966 0.04934683 -0.0054706666 -0.008880469 -0.05699264 -0.0127357505 0.04028709 -0.07196948 0.0058780843 -0.0440338 -0.061054133 -0.021396995 0.078653 0.089104384 0.032692716 -0.101474814 0.03378044 0.0520757 -0.046115804 -0.08156565 -0.039247293 0.021941628 -0.0027901658 0.05977501 -0.029001487 0.0036860814 -0.026828354 -0.046662927 0.020030309 0.0036682028 0.054601256 0.0035466324 -0.0041469303 -0.031863794 -0.04126676 0.008559044 -0.045181286 -0.006212386 0.06508052 0.14447694 0.032562956 0.019112848 0.031140354 -0.009131095 0.100525774 -0.007144952 0.07018724 0.02397789 0.03588431 0.033123344 0.099008 0.009018877 0.018169018 0.0056076366 0.06963431 -0.06420437 0.02078974
topic_3 -0.019302588 0.03341996 0.03275154 -0.013570027 -0.14995511 -0.058323707 0.06335089 -0.035714485 0.008643114 0.05633502 0.0053172684 -0.017968133 -0.060794808 0.026659887 0.0049891374 0.10696373 0.013188422 0.025647622 0.01304121 0.024337117 -0.025694484 -0.007889849 0.009666965 -0.053997513 -0.11134285 0.018773777 0.03442658 -0.013987205 -0.051357113 -0.018939909 -0.047933564 0.03437297 -0.0051262495 -0.054055464 -0.08358004 -0.016310107 0.01891742 -0.14502466 -0.07760685 -0.016610516 0.040711146 -0.08747357 -0.018417617 0.08325067 0.039249565 -0.027879186 -0.12321205 -0.07905708 -0.005596577 0.10057806 -0.07900263 -0.00993405 0.023607604 -0.04686765 -0.050429832 -0.06651597 0.03892971 -0.027552314 -0.016531669 -0.024604747 -0.01157314 -0.08375252 0.015109228 -0.066016406 -0.0019233034 -0.040984876 0.04455687 0.02242827 0.05328306 0.017424764 -0.0060276296 0.04094932 -0.00867421 0.035921473 -0.0443969 -0.06398945 -0.033821844 -0.056437902 -0.0042538084 -0.0158955 -0.073565446 -0.006675643 -0.00356578 -0.033457544 -0.03281545 0.017584583 0.14605723 0.03284331 0.0036163065 0.016979964 0.0035770515 0.028950837 -0.01081229 0.045309536 -0.027708188 0.07508875 0.006262391 -0.0030221224 0.013548688 -0.0142427245
topic_4 0.022263793 -0.0035281759 -0.021339677 -0.08493988 -0.009828475 0.08660733 -0.0689098 0.041094255 0.10803964 0.08365214 -0.004422989 -6.302149e-05 0.0111773135 -0.013078803 -0.05782856 0.05183223 0.060921516 0.0104707405 -0.033282533 0.08661344 -0.06394729 0.0278187 0.076372385 -0.09886552 -0.09499157 -0.01239908 -0.032068368 0.13710068 0.039581586 -0.058071956 0.038160816 -0.052989308 0.09638164 -0.07657989 0.035210427 -0.0036013084 0.004735181 -0.1038723 0.01429303 -0.017899515 -0.0068381485 -0.03739725 -0.06580335 0.038152583 0.03750674 -0.038879782 0.07588816 0.060623735 0.048123006 0.015084189 0.0731709 0.0027622827 0.048176784 -0.042038243 0.06799683 -0.046305083 -0.020345796 0.063783914 -0.06465991 0.013281419 0.05115339 0.06759824 -0.04784867 -0.02767624 0.018336581 0.006585079 -0.06385069 -0.05322228 -0.008092324 -0.038829215 -0.026949456 0.071055874 0.105060145 0.06774953 -0.09830412 -0.006216488 0.023737304 -0.08004382 0.014488102 -0.020503847 0.024584057 -0.06824569 0.0044002915 0.06744439 0.042160068 -0.14070652 0.07345504 -0.016128775 0.018018018 0.029643126 -0.11165288 0.052599225 -0.020656876 0.046550628 -0.04901673 0.044392385 -0.024470177 -0.013908041 0.06957467 -0.041772433
topic_5 -0.018155735 -0.021900324 -0.02313183 0.022586213 0.10030077 -0.090273246 -0.118525244 0.0061445893 0.076960705 -0.000776492 -0.049863614 -0.08442252 0.0006392601 0.032809425 0.026982617 -0.020705782 0.009470467 0.035735972 -0.0009040012 -0.04025458 -0.003227069 0.00022090055 -0.034463424 -0.0073262355 0.011439672 -0.0046249633 0.0987494 0.05153825 -0.02726792 0.06967257 -0.041542158 -0.089915454 0.007914589 -0.010505662 -0.0229547 -0.03881671 0.011689015 0.06716733 -0.11374087 -0.08265989 -0.06353843 0.07840373 0.07516096 0.0019126282 0.11174269 0.00741014 0.0067871064 0.031572375 0.043505557 0.01841515 0.07535124 -0.11889698 0.056438375 0.09770917 0.04695665 0.08163993 0.07176649 0.11586732 -0.04420087 0.049753122 -0.0742492 0.03944796 0.008304707 0.0109636 -0.021984527 0.035840638 0.022202788 0.00267952 -0.048234314 0.09422416 -0.11680452 0.09304949 0.10049022 -0.07813888 -0.04576484 0.053680792 -0.10177785 0.021871163 -0.019566588 0.04794104 -0.041801736 0.04251388 0.059586927 0.0761705 0.035929203 -0.14522433 0.112548985 -0.08493422 -0.020080086 -0.020759977 -0.044915244 0.028670091 0.04880354 0.004404198 -0.021060329 -0.067132145 0.04450927 0.006386462 0.064633995 -0.15235525
topic_6 0.0011629794 0.0052745375 -0.012919199 0.06157778 -0.0320221 -0.05944447 -0.032533567 0.013973297 0.020123336 0.04327545 -0.10002989 -0.077482775 0.018385263 -0.055162594 0.0074842 -0.07541172 0.024692556 0.0073633986 -0.04305831 0.058192596 0.074348964 -0.01646858 0.053998176 -0.061843105 -0.05715843 0.049132224 -0.08127848 0.05076471 -0.044371396 0.014753232 0.05456672 0.0043445164 -0.029683279 -0.052508954 0.0122067835 -0.04947362 0.021963561 0.036005482 -0.06888019 -0.07683147 -0.074566945 0.017345684 0.021520332 0.00979771 0.103472784 0.079291545 0.0129920915 -0.028656615 -0.018311467 0.031081732 -0.034370173 -0.072404824 -0.029652111 0.011412132 -0.016925741 -0.05097683 0.04720423 -0.03902934 0.053484462 0.055152934 -0.045028385 0.09992038 -0.05237269 0.0024359862 0.05720556 0.05161763 0.04703076 -0.026351217 -0.047625612 -0.041279305 0.008744499 0.054301336 0.010173114 0.07692564 -0.035688665 0.059015594 -0.02516026 0.049432375 0.04761918 0.071016625 -0.010470594 0.020772262 0.07816734 0.06447888 -0.024879571 0.00038434032 0.068454705 0.044914063 0.00033122563 0.021207158 -0.119216345 0.023579787 -0.009991023 0.0041260254 0.0049418933 0.028778424 -0.055334907 0.01593819 0.080198035 -0.03827624
topic_7 0.12234155 -0.13004479 -0.076556295 -0.03108276 0.024681432 -0.07075398 0.09813736 0.051398918 0.0042747664 0.016482104 0.03016103 -0.10274348 0.02366779 0.041439068 -0.057907823 0.026919277 0.017789075 -0.06279131 0.10364239 0.01675331 -0.082558215 0.024490606 0.04605633 0.054390255 -0.16246742 -0.008238334 -0.058310427 0.07055049 -0.12494069 -0.0055295452 0.036616188 -0.062450193 -0.030787485 -0.020232225 -0.020987235 -0.006186383 0.049593158 0.028387934 0.15111311 -0.032570627 -0.070532754 0.11335488 -0.023887493 0.013067312 0.04666996 -0.031036967 0.01158013 0.028864847 0.06792813 -0.06546664 -0.0154541135 0.014309594 -0.022424664 -0.032150295 -0.024990533 -0.020597074 0.055818822 -0.15916775 -0.15772246 -0.041405544 0.04481288 0.076599196 0.01239848 -0.08637391 -0.078875944 0.0077511645 0.001572208 0.10912055 0.040719602 0.08341385 0.08614051 0.020901965 -0.10552584 -0.022847753 -0.058676977 -0.1770229 -0.02919078 0.092251316 0.01590895 0.09590321 0.011149531 -0.05163236 -0.04527425 -0.035574283 -0.09595435 -0.039569974 -0.014890949 -0.037021607 0.050759077 0.09027992 -0.032929026 0.05977137 -0.044006754 -0.05817104 -0.07142345 -0.07085781 -0.063653104 -0.012356617 0.05809853 0.028055493
topic_8 -0.09211493 -0.031681627 -0.026106847 -0.06459105 -0.020688351 -0.002093198 -0.05350967 -0.037600838 0.041052856 0.076239064 0.0057391156 0.037301477 -0.03590075 0.009305356 0.040393386 0.047852337 -0.066244386 -0.004445069 0.09537963 0.005193203 -0.07093514 0.018557975 0.074064314 -0.053728286 -0.040969756 -0.045382764 0.020091163 0.043775078 -0.0075985803 -0.015999986 -0.0072866776 -0.012735355 0.009431404 0.03220936 0.022178281 -0.04092007 -0.045283604 0.0017425553 -0.07846308 -0.05096525 0.0049435464 -0.032204133 -0.037843462 0.00040849156 0.0056366655 0.040506665 -0.060271647 -0.033377383 0.038722403 -0.00095292536 0.0056846123 -0.0069882167 -0.049170017 -0.016870216 0.09710335 -0.077125154 0.07355514 0.029418023 -0.019160097 -0.06138344 -0.00484896 -0.012211875 0.05253772 -0.037346862 0.044958513 -0.002665961 -0.014571924 0.12075464 -0.03616476 -0.0073340116 0.027025558 0.018903447 0.1221032 0.07830241 0.040420305 0.07703907 -8.218404e-05 -0.03467622 0.029887404 -0.036513787 -0.05889963 -0.03442892 0.08920141 -0.0016865239 -0.036311448 0.007838099 -0.031061431 -0.029845342 -0.018556146 0.07326437 -0.0155114895 0.011271323 -0.061270483 0.089610994 0.061776042 -0.06724496 -0.055561103 -0.073746614 0.018316027 0.0078297
topic_9 -0.048241552 -0.01677403 0.016306326 0.013367348 -0.024399534 0.08593115 -0.05653795 0.07246547 -0.032502275 -0.021262847 -0.10942079 -0.028543387 -0.034422208 0.005451147 -0.01850291 -0.018562341 0.026301662 0.020918248 -0.00011366323 0.11216841 0.035859395 0.03687456 0.012855672 0.06930501 0.012670135 0.01036249 0.06014443 0.04472364 -0.02593873 0.051495954 -0.00060865824 0.005660205 -0.011862019 -0.032663144 0.019512538 -0.075141266 -0.026331093 -0.039081443 -0.05638346 -0.09291262 0.027472207 -0.012776791 -0.004757502 -0.03934823 0.031995986 0.024040064 0.053349372 -0.0039156717 0.00050908106 0.010903332 -0.049713984 -0.07385307 -0.045016967 -0.071355425 0.0074853254 0.07007017 0.021220632 -0.0042342497 0.036611594 -0.0574783 0.013988431 0.027082816 0.067750745 -0.003790148 -0.014450558 -0.03121387 0.07360416 0.06959067 -0.025539514 -0.05079757 -0.02335389 0.003999203 0.07817023 0.010170142 0.029858379 0.031808216 -0.008067398 -0.038134206 0.08450553 -0.035778236 -0.064127736 -0.035959963 0.028285913 -0.010126538 0.0010142578 -0.005287608 -0.012343384 0.03230992 -0.057789743 -0.0049074693 -0.034479436 0.027269388 0.07761445 -0.008850281 -0.011129541 0.010026112 -0.018298317 -0.03913692 -0.01864729 -0.0072774887
